<?xml version="1.0" encoding="UTF-8"?>
<BIF VERSION="0.3"  xmlns="http://www.cs.ubc.ca/labs/lci/fopi/ve/XMLBIFv0_3"
	xmlns:xsi="http://www.w3.org/2001/XMLSchema-instance"
	xsi:schemaLocation="http://www.cs.ubc.ca/labs/lci/fopi/ve/XMLBIFv0_3 http://www.cs.ubc.ca/labs/lci/fopi/ve/XMLBIFv0_3/XMLBIFv0_3.xsd">
<NETWORK>
<NAME>Untitled</NAME>
<PROPERTY>detailed = </PROPERTY>
<PROPERTY>short = </PROPERTY>

<VARIABLE TYPE="nature">
	<NAME>Rain 0</NAME>
	<OUTCOME>T</OUTCOME>
	<OUTCOME>F</OUTCOME>
	<PROPERTY>position = (7064.98974609375, 5146.00634765625)</PROPERTY>
</VARIABLE>

<VARIABLE TYPE="nature">
	<NAME>Rain 1</NAME>
	<OUTCOME>T</OUTCOME>
	<OUTCOME>F</OUTCOME>
	<PROPERTY>position = (7250.17138671875, 5148.49267578125)</PROPERTY>
</VARIABLE>

<VARIABLE TYPE="nature">
	<NAME>Umbrella 1</NAME>
	<OUTCOME>T</OUTCOME>
	<OUTCOME>F</OUTCOME>
	<OBS>T</OBS>
	<PROPERTY>position = (7244.7431640625, 5290.10546875)</PROPERTY>
</VARIABLE>

<VARIABLE TYPE="nature">
	<NAME>Rain 2</NAME>
	<OUTCOME>T</OUTCOME>
	<OUTCOME>F</OUTCOME>
	<PROPERTY>position = (7380.66943359375, 5146.00634765625)</PROPERTY>
</VARIABLE>

<VARIABLE TYPE="nature">
	<NAME>Umbrella 2</NAME>
	<OUTCOME>T</OUTCOME>
	<OUTCOME>F</OUTCOME>
	<OBS>T</OBS>
	<PROPERTY>position = (7392.1845703125, 5273.10546875)</PROPERTY>
</VARIABLE>

<VARIABLE TYPE="nature">
	<NAME>Rain 3</NAME>
	<OUTCOME>T</OUTCOME>
	<OUTCOME>F</OUTCOME>
	<PROPERTY>position = (7557.15185546875, 5143.52099609375)</PROPERTY>
</VARIABLE>

<VARIABLE TYPE="nature">
	<NAME>Umbrella 3</NAME>
	<OUTCOME>T</OUTCOME>
	<OUTCOME>F</OUTCOME>
	<OBS>T</OBS>
	<PROPERTY>position = (7560.880859375, 5278.990234375)</PROPERTY>
</VARIABLE>

<VARIABLE TYPE="nature">
	<NAME>Rain 4</NAME>
	<OUTCOME>T</OUTCOME>
	<OUTCOME>F</OUTCOME>
	<PROPERTY>position = (7712.50732421875, 5141.03564453125)</PROPERTY>
</VARIABLE>

<VARIABLE TYPE="nature">
	<NAME>Umbrella 4</NAME>
	<OUTCOME>T</OUTCOME>
	<OUTCOME>F</OUTCOME>
	<OBS>F</OBS>
	<PROPERTY>position = (7727.74853515625, 5274.77685546875)</PROPERTY>
</VARIABLE>

<VARIABLE TYPE="nature">
	<NAME>Rain 5</NAME>
	<OUTCOME>T</OUTCOME>
	<OUTCOME>F</OUTCOME>
	<PROPERTY>position = (7892.71923828125, 5142.2783203125)</PROPERTY>
</VARIABLE>

<VARIABLE TYPE="nature">
	<NAME>Umbrella 5</NAME>
	<OUTCOME>T</OUTCOME>
	<OUTCOME>F</OUTCOME>
	<OBS>T</OBS>
	<PROPERTY>position = (7895.47216796875, 5276.78759765625)</PROPERTY>
</VARIABLE>

<VARIABLE TYPE="nature">
	<NAME>Humidity 0</NAME>
	<OUTCOME>T</OUTCOME>
	<OUTCOME>F</OUTCOME>
	<PROPERTY>position = (7138.52734375, 5032.00927734375)</PROPERTY>
</VARIABLE>

<VARIABLE TYPE="nature">
	<NAME>Humidity 1</NAME>
	<OUTCOME>T</OUTCOME>
	<OUTCOME>F</OUTCOME>
	<PROPERTY>position = (7331.69287109375, 5029.0634765625)</PROPERTY>
</VARIABLE>

<VARIABLE TYPE="nature">
	<NAME>Humidity 2</NAME>
	<OUTCOME>T</OUTCOME>
	<OUTCOME>F</OUTCOME>
	<PROPERTY>position = (7488.32421875, 5028.11767578125)</PROPERTY>
</VARIABLE>

<VARIABLE TYPE="nature">
	<NAME>Humidity 3</NAME>
	<OUTCOME>T</OUTCOME>
	<OUTCOME>F</OUTCOME>
	<PROPERTY>position = (7635.896484375, 5033.11767578125)</PROPERTY>
</VARIABLE>

<VARIABLE TYPE="nature">
	<NAME>Humidity 4</NAME>
	<OUTCOME>T</OUTCOME>
	<OUTCOME>F</OUTCOME>
	<PROPERTY>position = (7779.9296875, 5036.0634765625)</PROPERTY>
</VARIABLE>

<VARIABLE TYPE="nature">
	<NAME>Humidity 5</NAME>
	<OUTCOME>T</OUTCOME>
	<OUTCOME>F</OUTCOME>
	<PROPERTY>position = (7894.87939453125, 5034.333984375)</PROPERTY>
</VARIABLE>

<DEFINITION>
	<FOR>Rain 0</FOR>
	<TABLE>0.7 0.3</TABLE>
</DEFINITION>

<DEFINITION>
	<FOR>Rain 1</FOR>
	<GIVEN>Rain 0</GIVEN>
	<GIVEN>Humidity 0</GIVEN>
	<TABLE>0.7 0.3 0.7 0.3 0.3 0.7 0.3 0.7</TABLE>
</DEFINITION>

<DEFINITION>
	<FOR>Umbrella 1</FOR>
	<GIVEN>Rain 1</GIVEN>
	<TABLE>0.9 0.1 0.2 0.8</TABLE>
</DEFINITION>

<DEFINITION>
	<FOR>Rain 2</FOR>
	<GIVEN>Rain 1</GIVEN>
	<GIVEN>Humidity 1</GIVEN>
	<TABLE>0.7 0.3 0.7 0.3 0.3 0.7 0.3 0.7</TABLE>
</DEFINITION>

<DEFINITION>
	<FOR>Umbrella 2</FOR>
	<GIVEN>Rain 2</GIVEN>
	<TABLE>0.9 0.1 0.2 0.8</TABLE>
</DEFINITION>

<DEFINITION>
	<FOR>Rain 3</FOR>
	<GIVEN>Rain 2</GIVEN>
	<GIVEN>Humidity 2</GIVEN>
	<TABLE>0.7 0.3 0.7 0.3 0.3 0.7 0.3 0.7</TABLE>
</DEFINITION>

<DEFINITION>
	<FOR>Umbrella 3</FOR>
	<GIVEN>Rain 3</GIVEN>
	<TABLE>0.9 0.1 0.2 0.8</TABLE>
</DEFINITION>

<DEFINITION>
	<FOR>Rain 4</FOR>
	<GIVEN>Rain 3</GIVEN>
	<GIVEN>Humidity 3</GIVEN>
	<TABLE>0.7 0.3 0.7 0.3 0.3 0.7 0.3 0.7</TABLE>
</DEFINITION>

<DEFINITION>
	<FOR>Umbrella 4</FOR>
	<GIVEN>Rain 4</GIVEN>
	<TABLE>0.9 0.1 0.2 0.8</TABLE>
</DEFINITION>

<DEFINITION>
	<FOR>Rain 5</FOR>
	<GIVEN>Rain 4</GIVEN>
	<GIVEN>Humidity 4</GIVEN>
	<TABLE>0.7 0.3 0.7 0.3 0.3 0.7 0.3 0.7</TABLE>
</DEFINITION>

<DEFINITION>
	<FOR>Umbrella 5</FOR>
	<GIVEN>Rain 5</GIVEN>
	<TABLE>0.9 0.1 0.2 0.8</TABLE>
</DEFINITION>

<DEFINITION>
	<FOR>Humidity 0</FOR>
	<TABLE>0.5 0.5</TABLE>
</DEFINITION>

<DEFINITION>
	<FOR>Humidity 1</FOR>
	<GIVEN>Humidity 0</GIVEN>
	<TABLE>0.5 0.5 0.5 0.5</TABLE>
</DEFINITION>

<DEFINITION>
	<FOR>Humidity 2</FOR>
	<GIVEN>Humidity 1</GIVEN>
	<TABLE>0.5 0.5 0.5 0.5</TABLE>
</DEFINITION>

<DEFINITION>
	<FOR>Humidity 3</FOR>
	<GIVEN>Humidity 2</GIVEN>
	<TABLE>0.5 0.5 0.5 0.5</TABLE>
</DEFINITION>

<DEFINITION>
	<FOR>Humidity 4</FOR>
	<GIVEN>Humidity 3</GIVEN>
	<TABLE>0.5 0.5 0.5 0.5</TABLE>
</DEFINITION>

<DEFINITION>
	<FOR>Humidity 5</FOR>
	<GIVEN>Humidity 4</GIVEN>
	<TABLE>0.5 0.5 0.5 0.5</TABLE>
</DEFINITION>
</NETWORK>
</BIF>
